Language model created by QuickLM on Wed May  2 22:22:36 EDT 2018
Copyright (c) 1996-2010 Carnegie Mellon University and Alexander I. Rudnicky

The model is in standard ARPA format, designed by Doug Paul while he was at MITRE.

The code that was used to produce this language model is available in Open Source.
Please visit http://www.speech.cs.cmu.edu/tools/ for more information

The (fixed) discount mass is 0.5. The backoffs are computed using the ratio method.
This model based on a corpus of 10 sentences and 14 words

\data\
ngram 1=14
ngram 2=22
ngram 3=13

\1-grams:
-0.8195 </s> -0.3010
-0.8195 <s> -0.2297
-1.8195 LEFT -0.2877
-1.8195 MARKER -0.2297
-1.8195 NOTES -0.2297
-1.8195 RAIL -0.2297
-1.8195 READY -0.2297
-1.8195 RIGHT -0.2877
-1.8195 SCISSORS -0.2297
-1.8195 SEAT -0.2297
-1.8195 STICKY -0.2944
-1.5185 STILE -0.2297
-1.8195 TAPE -0.2297
-1.8195 THUMBTACK -0.2297

\2-grams:
-1.3010 <s> LEFT 0.0000
-1.3010 <s> MARKER 0.0000
-1.3010 <s> RAIL 0.0000
-1.3010 <s> READY 0.0000
-1.3010 <s> RIGHT 0.0000
-1.3010 <s> SCISSORS 0.0000
-1.3010 <s> SEAT 0.0000
-1.3010 <s> STICKY 0.0000
-1.3010 <s> TAPE 0.0000
-1.3010 <s> THUMBTACK 0.0000
-0.3010 LEFT STILE 0.0000
-0.3010 MARKER </s> -0.3010
-0.3010 NOTES </s> -0.3010
-0.3010 RAIL </s> -0.3010
-0.3010 READY </s> -0.3010
-0.3010 RIGHT STILE 0.0000
-0.3010 SCISSORS </s> -0.3010
-0.3010 SEAT </s> -0.3010
-0.3010 STICKY NOTES 0.0000
-0.3010 STILE </s> -0.3010
-0.3010 TAPE </s> -0.3010
-0.3010 THUMBTACK </s> -0.3010

\3-grams:
-0.3010 <s> LEFT STILE
-0.3010 <s> MARKER </s>
-0.3010 <s> RAIL </s>
-0.3010 <s> READY </s>
-0.3010 <s> RIGHT STILE
-0.3010 <s> SCISSORS </s>
-0.3010 <s> SEAT </s>
-0.3010 <s> STICKY NOTES
-0.3010 <s> TAPE </s>
-0.3010 <s> THUMBTACK </s>
-0.3010 LEFT STILE </s>
-0.3010 RIGHT STILE </s>
-0.3010 STICKY NOTES </s>

\end\
